<<<<<<< HEAD
1190.8397524330808
-64.08019861579756
-80.07055597699281
33.49878768610781
226.52890744998345
1525.5386973763743
-63.9160078113456
-77.51525601548725
33.85186170561787
224.1216826656783
1086.7825970493618
-95.77895237254747
48.51571466918021
18.877988425699602
154.26108001025423
1647.4231507189734
-25.15817764649823
-78.52118109111373
110.35955582475263
130.20083477938329
2446.834714238334
-156.66563055122876
69.39587746198082
-90.4187073402411
113.67150306420642
-227.32563599535337
-72.77183245049295
-176.4690054968079
-280.5703871724944
273.4523399207299
4382.126470999467
-441.2088161180845
=======
9.126027286767272E97
-5.869350377440248E96
2.1737163181723495E97
1.1368063465059785E97
-3.2948922225557583E95
1.5475058500034744E98
-2.68172837549832E96
2.0087165896857507E97
9.493078158469484E96
5.626964196723036E95
8.375761528296932E97
-5.884363546084757E96
7.562113971960632E97
7.222531004540022E96
-8.690012226963905E96
1.8161726101042975E98
2.8170399803893093E96
1.412889775650066E97
8.514213214974665E96
6.589836774250517E96
2.407425280779771E98
-9.015815613378344E96
1.2351017407992485E97
-3.04314770767221E96
2.9672159054726823E95
-3.477715606754931E97
-3.532425737142671E97
3.0113670495064555E97
2.8420081031711995E97
-8.95851936873676E96
1.3497912669542275E98
-9.904606800983069E96
>>>>>>> a7c18a8625127e3a394f82ca942f88923aefde70
